{
  "activationFunctionFactory": {
    "activationFunctionMap": {
      "TANH": {
        "type": "basicneuralnetwork.activationfunctions.TanhActivationFunction",
        "data": {}
      },
      "RELU": {
        "type": "basicneuralnetwork.activationfunctions.ReLuActivationFunction",
        "data": {}
      },
      "SIGMOID": {
        "type": "basicneuralnetwork.activationfunctions.SigmoidActivationFunction",
        "data": {}
      }
    }
  },
  "random": {
    "seed": 218335382272277,
    "nextNextGaussian": 0.515984827836645,
    "haveNextNextGaussian": false
  },
  "inputNodes": 4,
  "hiddenLayers": 2,
  "hiddenNodes": 8,
  "outputNodes": 2,
  "weights": [
    {
      "mat": {
        "type": "org.ejml.data.DMatrixRMaj",
        "data": {
          "data": [
            7.6784615037470445,
            -3.1478021319727887,
            1.966875158439045,
            -3.042770167967369,
            -6.663160440972973,
            10.852489083118133,
            -0.4684659308964271,
            7.898422554534814,
            1.4521563482089663,
            -12.711227812999413,
            -1.5288212628492341,
            -3.0309791062472438,
            -12.75347433812305,
            24.59096061341398,
            -0.970900604208004,
            2.0166485945938506,
            15.43142639778955,
            13.804083820213599,
            -0.7568185319457246,
            -3.456635284634301,
            5.898238978285859,
            -13.386413127396736,
            -5.238049726353003,
            -15.925439463183334,
            -9.515323428266075,
            16.293557438030128,
            7.0378126124974,
            7.342175499724861,
            -1.4907702184675027,
            -3.688468366176484,
            4.216147084598835,
            0.3836236219180308
          ],
          "numRows": 8,
          "numCols": 4
        }
      },
      "ops": {
        "type": "org.ejml.simple.ops.SimpleOperations_DDRM",
        "data": {}
      }
    },
    {
      "mat": {
        "type": "org.ejml.data.DMatrixRMaj",
        "data": {
          "data": [
            0.857175747585663,
            2.6495280856490915,
            -2.6439118664959547,
            -8.296805168976999,
            1.8819830575511136,
            12.064267508355583,
            10.184516897379646,
            7.65755049956354,
            -7.158247077787051,
            14.851988219060848,
            1.0784602319276588,
            1.3497345732935346,
            0.8728236818191659,
            4.927415139048611,
            8.952283382003332,
            1.9612610960102224,
            -2.920788339692324,
            9.301308159586311,
            9.157712753578727,
            4.054853050848867,
            -9.832692906861864,
            -9.614603520300026,
            8.885345411306542,
            6.086894607208418,
            -4.809972100082063,
            -0.060327750280822934,
            5.847373449575742,
            -22.923588033650173,
            -6.074750120866047,
            0.47713765782867873,
            -4.227108831634812,
            -2.6035191045655597,
            -0.46192382527380715,
            -2.068352724520414,
            4.575229571866588,
            8.596456860943073,
            -9.105273344509655,
            -10.880470728804557,
            3.1658390017100078,
            -10.096081744566835,
            -9.697337782190868,
            13.713558515916061,
            5.098689978210011,
            -8.711306051532796,
            6.783891289091153,
            2.039581116308951,
            -7.951101883435182,
            6.870832748519951,
            6.742356576460708,
            -2.4173088565493375,
            2.35312536169335,
            7.89563967251657,
            8.518568667571557,
            5.0236079536231735,
            -5.605875054339969,
            5.361024934001245,
            -8.694708575957149,
            6.1637194368810215,
            0.3902676847493568,
            8.245576897633807,
            3.3838017405202345,
            0.011997501696532353,
            1.233898810193883,
            -4.961561577450928
          ],
          "numRows": 8,
          "numCols": 8
        }
      },
      "ops": {
        "type": "org.ejml.simple.ops.SimpleOperations_DDRM",
        "data": {}
      }
    },
    {
      "mat": {
        "type": "org.ejml.data.DMatrixRMaj",
        "data": {
          "data": [
            2.7891190751854293,
            6.602515107753636,
            1.3657780008393938,
            -5.504376559633068,
            8.76147015195088,
            -0.5728196631006488,
            1.7703496443851963,
            -12.878446122936353,
            3.0903622228701217,
            0.7423034571270711,
            -5.5573298195981735,
            8.252811585740503,
            -6.8750807140817685,
            -11.957268916871714,
            2.716556976203161,
            4.626449533665798
          ],
          "numRows": 2,
          "numCols": 8
        }
      },
      "ops": {
        "type": "org.ejml.simple.ops.SimpleOperations_DDRM",
        "data": {}
      }
    }
  ],
  "biases": [
    {
      "mat": {
        "type": "org.ejml.data.DMatrixRMaj",
        "data": {
          "data": [
            -15.47239003619292,
            -11.955504282902998,
            3.345006756966407,
            -3.4977736814735554,
            3.0502620102063633,
            15.096344194823766,
            -3.4585000407497906,
            -12.336546906228003
          ],
          "numRows": 8,
          "numCols": 1
        }
      },
      "ops": {
        "type": "org.ejml.simple.ops.SimpleOperations_DDRM",
        "data": {}
      }
    },
    {
      "mat": {
        "type": "org.ejml.data.DMatrixRMaj",
        "data": {
          "data": [
            -4.866369172594545,
            -3.8734183551604153,
            -9.030428366164326,
            -6.048324729936823,
            4.434439042819009,
            5.178366168011982,
            -17.9947047351205,
            14.839071201044195
          ],
          "numRows": 8,
          "numCols": 1
        }
      },
      "ops": {
        "type": "org.ejml.simple.ops.SimpleOperations_DDRM",
        "data": {}
      }
    },
    {
      "mat": {
        "type": "org.ejml.data.DMatrixRMaj",
        "data": {
          "data": [
            -0.8637838663346896,
            6.565090623779119
          ],
          "numRows": 2,
          "numCols": 1
        }
      },
      "ops": {
        "type": "org.ejml.simple.ops.SimpleOperations_DDRM",
        "data": {}
      }
    }
  ],
  "learningRate": 0.1,
  "activationFunctionKey": "SIGMOID"
}